1221
2634  
5117  
4319  
5415  
6387  
4371  
3708  
2700  
-1508  
35
3606  
6  
-495  
3006  
-5757  
1488  
1219  
-1502  
735  
-678
118  
-3892  
2714  
14  
-2310  
2940  
-629  
1806  
1709  
828
-3714  
-5127  
-1543  
-6152  
-942  
2580  
-3719  
2163  
927  
1147
3782  
1456  
-1382  
2384  
835  
1148  
1095  
3375  
-2  
242
2409  
3775  
-1079  
4071  
3036  
1505  
2791  
768  
2983  
1363
771  
-336  
2205  
1431  
1167  
2318  
1789  
-993  
-3204  
883
784  
2438  
-1238  
1143  
3251  
2988  
105  
470  
-233  
359
821  
1032  
-120  
-3297  
1562  
-2064  
-1441  
630  
-74  
936
-648  
2370  
3163  
596  
-1921  
-4966  
-894  
-534  
508  
220
1788  
-1450  
3238  
2183  
2356  
918  
1962  
1775  
-2222  
-46
1091  
938  
2220  
1435  
2164  
-265  
-7  
-3175  
-243  
361
911  
-1263  
241  
-4298  
1347  
763  
2714  
1631  
855  
498
1757  
518  
-473  
1265  
3629  
494  
-397  
1545  
2101  
1811
-788  
66  
1175  
-1065  
-5853  
-1413  
4192  
3794  
1390  
562
-856  
1154  
-944  
2690  
303  
-1734  
4320  
-493  
0  
133
-13  
2704  
4030  
996  
3293  
-525  
3424  
2128  
-982 